Language model created by QuickLM on Mon Nov 21 07:37:47 EST 2016
Copyright (c) 1996-2010 Carnegie Mellon University and Alexander I. Rudnicky

The model is in standard ARPA format, designed by Doug Paul while he was at MITRE.

The code that was used to produce this language model is available in Open Source.
Please visit http://www.speech.cs.cmu.edu/tools/ for more information

The (fixed) discount mass is 0.5. The backoffs are computed using the ratio method.
This model based on a corpus of 4 sentences and 6 words

\data\
ngram 1=6
ngram 2=8
ngram 3=4

\1-grams:
-0.7782 </s> -0.3010
-0.7782 <s> -0.2218
-1.3802 ANGELINE -0.2218
-1.3802 DIEGO -0.2218
-1.3802 WALI -0.2218
-1.3802 WILLIAM -0.2218

\2-grams:
-0.9031 <s> ANGELINE 0.0000
-0.9031 <s> DIEGO 0.0000
-0.9031 <s> WALI 0.0000
-0.9031 <s> WILLIAM 0.0000
-0.3010 ANGELINE </s> -0.3010
-0.3010 DIEGO </s> -0.3010
-0.3010 WALI </s> -0.3010
-0.3010 WILLIAM </s> -0.3010

\3-grams:
-0.3010 <s> ANGELINE </s>
-0.3010 <s> DIEGO </s>
-0.3010 <s> WALI </s>
-0.3010 <s> WILLIAM </s>

\end\
